<?xml version='1.0' encoding='UTF-8'?>
<BIF VERSION="0.3">
  <NETWORK>
    <NAME>UNTITLED</NAME>
    <VARIABLE TYPE="nature">
      <NAME>clouds</NAME>
      <OUTCOME>heavy</OUTCOME>
      <OUTCOME>light</OUTCOME>
      <OUTCOME>moderate</OUTCOME>
      <OUTCOME>no</OUTCOME>
      <PROPERTY/>
    </VARIABLE>
    <VARIABLE TYPE="nature">
      <NAME>fog</NAME>
      <OUTCOME>heavy</OUTCOME>
      <OUTCOME>light</OUTCOME>
      <OUTCOME>moderate</OUTCOME>
      <OUTCOME>no</OUTCOME>
      <PROPERTY/>
    </VARIABLE>
    <VARIABLE TYPE="nature">
      <NAME>pedestrians</NAME>
      <OUTCOME>high</OUTCOME>
      <OUTCOME>low</OUTCOME>
      <OUTCOME>medium</OUTCOME>
      <PROPERTY/>
    </VARIABLE>
    <VARIABLE TYPE="nature">
      <NAME>rain</NAME>
      <OUTCOME>heavy</OUTCOME>
      <OUTCOME>light</OUTCOME>
      <OUTCOME>moderate</OUTCOME>
      <OUTCOME>no</OUTCOME>
      <PROPERTY/>
    </VARIABLE>
    <VARIABLE TYPE="nature">
      <NAME>speed</NAME>
      <OUTCOME>high</OUTCOME>
      <OUTCOME>low</OUTCOME>
      <OUTCOME>medium</OUTCOME>
      <PROPERTY/>
    </VARIABLE>
    <VARIABLE TYPE="nature">
      <NAME>time</NAME>
      <OUTCOME>afternoon</OUTCOME>
      <OUTCOME>early_evening</OUTCOME>
      <OUTCOME>early_morning</OUTCOME>
      <OUTCOME>evening</OUTCOME>
      <OUTCOME>late_evening</OUTCOME>
      <OUTCOME>late_morning</OUTCOME>
      <OUTCOME>morning</OUTCOME>
      <OUTCOME>night</OUTCOME>
      <PROPERTY/>
    </VARIABLE>
    <VARIABLE TYPE="nature">
      <NAME>traffic</NAME>
      <OUTCOME>heavy</OUTCOME>
      <OUTCOME>low</OUTCOME>
      <OUTCOME>medium</OUTCOME>
      <PROPERTY/>
    </VARIABLE>
    <DEFINITION>
      <FOR>clouds</FOR>
      <TABLE>0.3718905472636816 0.12860696517412934 0.13059701492537312 0.36890547263681595 </TABLE>
    </DEFINITION>
    <DEFINITION>
      <FOR>fog</FOR>
      <GIVEN>rain</GIVEN>
      <TABLE>0.4772727272727273 0.11363636363636363 0.29545454545454547 0.11363636363636363 0.46139896373056993 0.11321243523316062 0.12150259067357513 0.3038860103626943 0.4590909090909091 0.05909090909090909 0.20454545454545456 0.2772727272727273 0.1643526262964202 0.09610237537638006 0.07469053195048511 0.6648544663767146 </TABLE>
    </DEFINITION>
    <DEFINITION>
      <FOR>pedestrians</FOR>
      <GIVEN>rain</GIVEN>
      <GIVEN>time</GIVEN>
      <TABLE>0.33333333333333337 0.33333333333333337 0.33333333333333337 0.33333333333333337 0.33333333333333337 0.33333333333333337 0.33333333333333337 0.33333333333333337 0.33333333333333337 0.07936507936507936 0.8412698412698412 0.07936507936507936 0.33333333333333337 0.33333333333333337 0.33333333333333337 0.07936507936507937 0.07936507936507937 0.8412698412698413 0.33333333333333337 0.33333333333333337 0.33333333333333337 0.07936507936507936 0.8412698412698412 0.07936507936507936 0.5444549167452089 0.0015708451146716935 0.4539742381401194 0.31352522438873415 0.2541008975549366 0.4323738780563293 0.0014607069821793745 0.9970785860356411 0.0014607069821793745 0.001671681711802073 0.5794048813105984 0.4189234369775995 0.0016716817118020732 0.9966566365763959 0.0016716817118020732 0.3250645994832041 0.027390180878552974 0.647545219638243 0.0016989466530750936 0.13217804960924226 0.8661230037376826 0.002030044660982542 0.995939910678035 0.002030044660982542 0.2560386473429952 0.024154589371980676 0.7198067632850241 0.2560386473429952 0.024154589371980676 0.7198067632850241 0.04504504504504506 0.90990990990991 0.04504504504504506 0.016501650165016504 0.4917491749174917 0.4917491749174917 0.019607843137254898 0.9607843137254901 0.019607843137254898 0.04504504504504505 0.04504504504504505 0.9099099099099098 0.33333333333333337 0.33333333333333337 0.33333333333333337 0.04504504504504506 0.90990990990991 0.04504504504504506 0.7445744574457446 0.010101010101010102 0.24532453245324534 0.32871039198690166 0.3472021573726284 0.32408745064047 0.0006930006930006931 0.9986139986139987 0.0006930006930006931 0.0005561116672227783 0.6465354243132021 0.35290846401957515 0.0006497725795971412 0.9924626380766732 0.006887589343729696 0.6853539537880879 0.004878946883917887 0.3097670993279941 0.0005908070424199456 0.02894954507857734 0.9704596478790026 0.0006152331733727084 0.9987695336532547 0.0006152331733727084 </TABLE>
    </DEFINITION>
    <DEFINITION>
      <FOR>rain</FOR>
      <GIVEN>clouds</GIVEN>
      <TABLE>0.0035117056856187293 0.3633779264214047 0.02491638795986622 0.6081939799331104 0.0024177949709864605 0.21518375241779497 0.010154738878143133 0.7722437137330754 0.006190476190476191 0.23095238095238096 0.017619047619047618 0.7452380952380953 0.0008428860418071476 0.12761294672960216 0.002191503708698584 0.8693526635198922 </TABLE>
    </DEFINITION>
    <DEFINITION>
      <FOR>speed</FOR>
      <GIVEN>fog</GIVEN>
      <GIVEN>pedestrians</GIVEN>
      <GIVEN>time</GIVEN>
      <GIVEN>traffic</GIVEN>
      <TABLE>0.0005252652589557726 0.49973736737052216 0.49973736737052216 0.01118568232662192 0.9776286353467559 0.01118568232662192 0.0014405070584845867 0.3748199366176895 0.623739556323826 0.0011534025374855823 0.5990772779700115 0.3997693194925029 0.011185682326621923 0.011185682326621923 0.9776286353467561 0.0028686173264486515 0.7464142283419392 0.2507171543316122 0.3333333333333333 0.3333333333333333 0.3333333333333333 0.3333333333333333 0.3333333333333333 0.3333333333333333 0.3333333333333333 0.3333333333333333 0.3333333333333333 0.3333333333333333 0.3333333333333333 0.3333333333333333 0.3333333333333333 0.3333333333333333 0.3333333333333333 0.3333333333333333 0.3333333333333333 0.3333333333333333 0.3333333333333333 0.3333333333333333 0.3333333333333333 0.3333333333333333 0.3333333333333333 0.3333333333333333 0.3333333333333333 0.3333333333333333 0.3333333333333333 0.0005502366017387477 0.5710355452844723 0.42841421811378894 0.002298850574712643 0.20091954022988504 0.7967816091954022 0.10080738177623992 0.3001153402537486 0.5990772779700116 0.3333333333333333 0.3333333333333333 0.3333333333333333 0.3333333333333333 0.3333333333333333 0.3333333333333333 0.3333333333333333 0.3333333333333333 0.3333333333333333 0.3333333333333333 0.3333333333333333 0.3333333333333333 0.3333333333333333 0.3333333333333333 0.3333333333333333 0.3333333333333333 0.3333333333333333 0.3333333333333333 0.3333333333333333 0.3333333333333333 0.3333333333333333 0.3333333333333333 0.3333333333333333 0.3333333333333333 0.3333333333333333 0.3333333333333333 0.3333333333333333 0.0028686173264486515 0.2507171543316122 0.7464142283419392 0.0009617234083477592 0.16714752837084054 0.8318907482208118 0.0009617234083477591 0.0009617234083477591 0.9980765531833045 0.0012810658467845245 0.0012810658467845245 0.9974378683064309 0.06728252501924557 0.06728252501924557 0.8654349499615088 0.13667402038029206 0.13667402038029206 0.7266519592394158 0.0007218131947452 0.12545113324671575 0.8738270535585391 0.0008879417510211329 0.07760610903924703 0.9215059492097318 0.0005777007510109763 0.2002310803004044 0.7991912189485846 0.0008246742536698003 0.07207652977074056 0.9270987959755896 0.0007698229407236335 0.0007698229407236335 0.9984603541185527 0.03885480572597137 0.1540855339201565 0.8070596603538721 0.3333333333333333 0.3333333333333333 0.3333333333333333 0.3333333333333333 0.3333333333333333 0.3333333333333333 0.01118568232662192 0.9776286353467559 0.01118568232662192 0.01118568232662192 0.9776286353467559 0.01118568232662192 0.20091954022988512 0.3995402298850575 0.3995402298850575 0.9776286353467559 0.01118568232662192 0.01118568232662192 0.0016452780519907863 0.0016452780519907863 0.9967094438960185 0.06308647322073048 0.06308647322073048 0.8738270535585391 0.07726504845736641 0.1540855339201565 0.7686494176224771 0.0008879417510211329 0.3077606109039247 0.6913514473450542 0.0016452780519907863 0.42810134912800263 0.5702533728200067 0.09167191105517099 0.18229494440948185 0.7260331445353473 0.0005252652589557726 0.4543544489967434 0.5451202857443009 0.0028686173264486524 0.49856569133677575 0.49856569133677575 0.0014405070584845867 0.3748199366176895 0.623739556323826 0.3333333333333333 0.3333333333333333 0.3333333333333333 0.3333333333333333 0.3333333333333333 0.3333333333333333 0.3333333333333333 0.3333333333333333 0.3333333333333333 0.0011534025374855825 0.3001153402537486 0.6987312572087659 0.011185682326621923 0.011185682326621923 0.9776286353467561 0.0022988505747126436 0.0022988505747126436 0.9954022988505747 0.3333333333333333 0.3333333333333333 0.3333333333333333 0.3333333333333333 0.3333333333333333 0.3333333333333333 0.3333333333333333 0.3333333333333333 0.3333333333333333 0.0008879417510211329 0.5379151127686024 0.4611969454803765 0.0016452780519907863 0.28594932543599866 0.7124053965120105 0.07207652977074057 0.1433283852878113 0.7845950849414483 0.0005252652589557728 0.8628007143607522 0.13667402038029208 0.0014405070584845867 0.25036012676462116 0.7481993661768944 0.15821476346832056 0.4734281892253436 0.3683570473063359 0.3333333333333333 0.3333333333333333 0.3333333333333333 0.3333333333333333 0.3333333333333333 0.3333333333333333 0.3333333333333333 0.3333333333333333 0.3333333333333333 0.0009617234083477591 0.4164262358145797 0.5826120407770725 0.0022988505747126436 0.0022988505747126436 0.9954022988505747 0.0006417661404184315 0.5551277114619433 0.4442305223976383 0.0028686173264486515 0.7464142283419392 0.2507171543316122 0.3333333333333333 0.3333333333333333 0.3333333333333333 0.003813882532418002 0.992372234935164 0.003813882532418002 0.3333333333333333 0.3333333333333333 0.3333333333333333 0.3333333333333333 0.3333333333333333 0.3333333333333333 0.3333333333333333 0.3333333333333333 0.3333333333333333 0.3333333333333333 0.3333333333333333 0.3333333333333333 0.3333333333333333 0.3333333333333333 0.3333333333333333 0.3333333333333333 0.3333333333333333 0.3333333333333333 0.3333333333333333 0.3333333333333333 0.3333333333333333 0.3333333333333333 0.3333333333333333 0.3333333333333333 0.3333333333333333 0.3333333333333333 0.3333333333333333 0.002298850574712644 0.59816091954023 0.3995402298850575 0.0038138825324180014 0.0038138825324180014 0.9923722349351639 0.005688282138794085 0.988623435722412 0.005688282138794085 0.3333333333333333 0.3333333333333333 0.3333333333333333 0.3333333333333333 0.3333333333333333 0.3333333333333333 0.3333333333333333 0.3333333333333333 0.3333333333333333 0.3333333333333333 0.3333333333333333 0.3333333333333333 0.3333333333333333 0.3333333333333333 0.3333333333333333 0.3333333333333333 0.3333333333333333 0.3333333333333333 0.3333333333333333 0.3333333333333333 0.3333333333333333 0.3333333333333333 0.3333333333333333 0.3333333333333333 0.3333333333333333 0.3333333333333333 0.3333333333333333 0.0038138825324180014 0.0038138825324180014 0.9923722349351639 0.0019179133103183733 0.16762562332182585 0.8304564633678557 0.005688282138794083 0.005688282138794083 0.9886234357224117 0.0038138825324180014 0.0038138825324180014 0.9923722349351639 0.0010488777008600795 0.09167191105517097 0.9072792112439689 0.0010488777008600795 0.5447870778267254 0.4541640444724145 0.3333333333333333 0.3333333333333333 0.3333333333333333 0.002298850574712643 0.20091954022988504 0.7967816091954022 0.0011534025374855825 0.3001153402537486 0.6987312572087659 0.0038138825324180014 0.6628527841342486 0.33333333333333337 0.0016452780519907863 0.0016452780519907863 0.9967094438960185 0.09167191105517097 0.4541640444724145 0.4541640444724145 0.3333333333333333 0.3333333333333333 0.3333333333333333 0.3333333333333333 0.3333333333333333 0.3333333333333333 0.3333333333333333 0.3333333333333333 0.3333333333333333 0.3333333333333333 0.3333333333333333 0.3333333333333333 0.3333333333333333 0.3333333333333333 0.3333333333333333 0.011185682326621923 0.011185682326621923 0.9776286353467561 0.005688282138794083 0.005688282138794083 0.9886234357224117 0.0014405070584845863 0.0014405070584845863 0.9971189858830307 0.0011534025374855825 0.3001153402537486 0.6987312572087659 0.0038138825324180014 0.6628527841342486 0.33333333333333337 0.005688282138794083 0.005688282138794083 0.9886234357224117 0.0038138825324180014 0.33333333333333337 0.6628527841342486 0.0038138825324180014 0.33333333333333337 0.6628527841342486 0.01118568232662192 0.9776286353467559 0.01118568232662192 0.0028686173264486515 0.0028686173264486515 0.9942627653471028 0.3333333333333333 0.3333333333333333 0.3333333333333333 0.3333333333333333 0.3333333333333333 0.3333333333333333 0.3333333333333333 0.3333333333333333 0.3333333333333333 0.0028686173264486524 0.49856569133677575 0.49856569133677575 0.011185682326621923 0.011185682326621923 0.9776286353467561 0.0038138825324180014 0.0038138825324180014 0.9923722349351639 0.3333333333333333 0.3333333333333333 0.3333333333333333 0.3333333333333333 0.3333333333333333 0.3333333333333333 0.3333333333333333 0.3333333333333333 0.3333333333333333 0.005688282138794083 0.005688282138794083 0.9886234357224117 0.011185682326621923 0.011185682326621923 0.9776286353467561 0.0028686173264486524 0.49856569133677575 0.49856569133677575 0.0011534025374855823 0.6987312572087658 0.30011534025374853 0.005688282138794085 0.988623435722412 0.005688282138794085 0.10080738177623991 0.7983852364475201 0.10080738177623991 0.3333333333333333 0.3333333333333333 0.3333333333333333 0.3333333333333333 0.3333333333333333 0.3333333333333333 0.3333333333333333 0.3333333333333333 0.3333333333333333 0.0009617234083477591 0.4995191382958261 0.4995191382958261 0.0019179133103183733 0.16762562332182585 0.8304564633678557 0.0038138825324180014 0.33333333333333337 0.6628527841342486 0.0038138825324180014 0.6628527841342486 0.33333333333333337 0.011185682326621923 0.011185682326621923 0.9776286353467561 0.005688282138794083 0.497155858930603 0.497155858930603 0.3333333333333333 0.3333333333333333 0.3333333333333333 0.3333333333333333 0.3333333333333333 0.3333333333333333 0.3333333333333333 0.3333333333333333 0.3333333333333333 0.3333333333333333 0.3333333333333333 0.3333333333333333 0.3333333333333333 0.3333333333333333 0.3333333333333333 0.3333333333333333 0.3333333333333333 0.3333333333333333 0.3333333333333333 0.3333333333333333 0.3333333333333333 0.3333333333333333 0.3333333333333333 0.3333333333333333 0.3333333333333333 0.3333333333333333 0.3333333333333333 0.002298850574712644 0.3995402298850575 0.59816091954023 0.002298850574712644 0.3995402298850575 0.59816091954023 0.14379730174399474 0.5702533728200065 0.2859493254359986 0.3333333333333333 0.3333333333333333 0.3333333333333333 0.3333333333333333 0.3333333333333333 0.3333333333333333 0.3333333333333333 0.3333333333333333 0.3333333333333333 0.3333333333333333 0.3333333333333333 0.3333333333333333 0.3333333333333333 0.3333333333333333 0.3333333333333333 0.3333333333333333 0.3333333333333333 0.3333333333333333 0.3333333333333333 0.3333333333333333 0.3333333333333333 0.3333333333333333 0.3333333333333333 0.3333333333333333 0.3333333333333333 0.3333333333333333 0.3333333333333333 0.011185682326621923 0.011185682326621923 0.9776286353467561 0.011185682326621923 0.011185682326621923 0.9776286353467561 0.005688282138794083 0.005688282138794083 0.9886234357224117 0.011185682326621923 0.011185682326621923 0.9776286353467561 0.001645278051990786 0.14379730174399474 0.8545574202040144 0.07207652977074056 0.42833580735609433 0.4995876628731651 0.0028686173264486515 0.2507171543316122 0.7464142283419392 0.0038138825324180014 0.0038138825324180014 0.9923722349351639 0.25036012676462116 0.25036012676462116 0.4992797464707578 0.0019179133103183735 0.0019179133103183735 0.9961641733793632 0.0038138825324180014 0.0038138825324180014 0.9923722349351639 0.001645278051990786 0.14379730174399474 0.8545574202040144 0.3333333333333333 0.3333333333333333 0.3333333333333333 0.3333333333333333 0.3333333333333333 0.3333333333333333 0.3333333333333333 0.3333333333333333 0.3333333333333333 0.3333333333333333 0.3333333333333333 0.3333333333333333 0.011185682326621923 0.011185682326621923 0.9776286353467561 0.3333333333333333 0.3333333333333333 0.3333333333333333 0.011185682326621923 0.011185682326621923 0.9776286353467561 0.0012810658467845245 0.0012810658467845245 0.9974378683064309 0.14379730174399474 0.14379730174399474 0.7124053965120105 0.011185682326621923 0.011185682326621923 0.9776286353467561 0.0038138825324180014 0.33333333333333337 0.6628527841342486 0.0016452780519907863 0.42810134912800263 0.5702533728200067 0.0019179133103183735 0.3333333333333333 0.6647487533563483 0.011185682326621923 0.011185682326621923 0.9776286353467561 0.0028686173264486515 0.2507171543316122 0.7464142283419392 0.3333333333333333 0.3333333333333333 0.3333333333333333 0.3333333333333333 0.3333333333333333 0.3333333333333333 0.3333333333333333 0.3333333333333333 0.3333333333333333 0.011185682326621923 0.011185682326621923 0.9776286353467561 0.005688282138794083 0.005688282138794083 0.9886234357224117 0.0038138825324180014 0.6628527841342486 0.33333333333333337 0.3333333333333333 0.3333333333333333 0.3333333333333333 0.3333333333333333 0.3333333333333333 0.3333333333333333 0.3333333333333333 0.3333333333333333 0.3333333333333333 0.005688282138794083 0.005688282138794083 0.9886234357224117 0.0038138825324180014 0.6628527841342486 0.33333333333333337 0.0019179133103183737 0.49904104334484084 0.49904104334484084 0.0016452780519907863 0.42810134912800263 0.5702533728200067 0.003813882532418002 0.992372234935164 0.003813882532418002 0.14379730174399477 0.4281013491280027 0.4281013491280027 0.3333333333333333 0.3333333333333333 0.3333333333333333 0.3333333333333333 0.3333333333333333 0.3333333333333333 0.3333333333333333 0.3333333333333333 0.3333333333333333 0.00032119226569024214 0.3888353568446072 0.6108434508897026 0.00044456299457633147 0.538187961234107 0.4613674757713168 0.00026894734011080634 0.5347211016083051 0.46500995105158416 0.0006794401413235493 0.5877157222448702 0.4116048376138063 0.0008246742536698003 0.8558469404585188 0.1433283852878113 0.00034006665306400053 0.5585934843229272 0.4410664490240087 0.3333333333333333 0.3333333333333333 0.3333333333333333 0.3333333333333333 0.3333333333333333 0.3333333333333333 0.3333333333333333 0.3333333333333333 0.3333333333333333 0.3333333333333333 0.3333333333333333 0.3333333333333333 0.3333333333333333 0.3333333333333333 0.3333333333333333 0.3333333333333333 0.3333333333333333 0.3333333333333333 0.3333333333333333 0.3333333333333333 0.3333333333333333 0.3333333333333333 0.3333333333333333 0.3333333333333333 0.3333333333333333 0.3333333333333333 0.3333333333333333 0.00037293950921160585 0.41925859625568734 0.580368464235101 0.033680154142581895 0.4998073217726397 0.46651252408477845 0.02297219155758819 0.4771592283025811 0.49986858013983076 0.3333333333333333 0.3333333333333333 0.3333333333333333 0.3333333333333333 0.3333333333333333 0.3333333333333333 0.3333333333333333 0.3333333333333333 0.3333333333333333 0.3333333333333333 0.3333333333333333 0.3333333333333333 0.3333333333333333 0.3333333333333333 0.3333333333333333 0.3333333333333333 0.3333333333333333 0.3333333333333333 0.3333333333333333 0.3333333333333333 0.3333333333333333 0.3333333333333333 0.3333333333333333 0.3333333333333333 0.005688282138794083 0.005688282138794083 0.9886234357224117 0.0016452780519907863 0.28594932543599866 0.7124053965120105 0.0005777007510109763 0.25014442518775276 0.7492778740612364 0.0005252652589557726 0.18205693875407084 0.8174177959869734 0.0008246742536698004 0.1433283852878113 0.855846940458519 0.2727655099894848 0.25459516298633017 0.47263932702418504 0.14764667956157318 0.2951037281450298 0.5572495922933971 0.0005777007510109763 0.2002310803004044 0.7991912189485846 0.0005777007510109763 0.10040439052570768 0.8990179087232814 0.14301448317638638 0.2143840519852415 0.6426014648383721 0.0005024620641141594 0.4346296854587479 0.564867852477138 0.0002628397203385376 0.38632182095358253 0.6134153393260791 0.10459615318208501 0.3283607859387409 0.567043060879174 0.3333333333333333 0.3333333333333333 0.3333333333333333 0.3333333333333333 0.3333333333333333 0.3333333333333333 0.011185682326621923 0.011185682326621923 0.9776286353467561 0.3333333333333333 0.3333333333333333 0.3333333333333333 0.01118568232662192 0.9776286353467559 0.01118568232662192 0.33333333333333337 0.33333333333333337 0.33333333333333337 0.0006794401413235493 0.23549395298274226 0.7638266068759343 0.19240179723297304 0.3653632279015971 0.44223497486543 0.1765506447551972 0.3676295464598006 0.4558198087850022 0.0012810658467845247 0.33333333333333337 0.6653856008198822 0.0010488777008600795 0.4541640444724145 0.5447870778267254 0.0008246742536698004 0.21458024080488208 0.7845950849414483 0.0004623208506703652 0.1602404068423486 0.839297272306981 0.002298850574712644 0.3995402298850575 0.59816091954023 0.0006080505898090721 0.3683570473063359 0.631034902103855 0.3333333333333333 0.3333333333333333 0.3333333333333333 0.3333333333333333 0.3333333333333333 0.3333333333333333 0.3333333333333333 0.3333333333333333 0.3333333333333333 0.0008246742536698003 0.5708395183902358 0.42833580735609433 0.0006794401413235493 0.8812338632966437 0.11808669656203288 0.00034006665306400053 0.3823029313745494 0.6173570019723865 0.3333333333333333 0.3333333333333333 0.3333333333333333 0.011185682326621923 0.011185682326621923 0.9776286353467561 0.3333333333333333 0.3333333333333333 0.3333333333333333 0.0008246742536698003 0.3570839518390236 0.6420913739073066 0.0009617234083477591 0.08405462588959416 0.914983650702058 0.0005502366017387477 0.09563112138219435 0.9038186420160669 0.0002965071458222144 0.5638972899246872 0.4358062029294906 0.17962402893909746 0.35895155073237267 0.46142442032852987 0.0863547525028918 0.5171313469745922 0.39651390052251606 0.3333333333333333 0.3333333333333333 0.3333333333333333 0.3333333333333333 0.3333333333333333 0.3333333333333333 0.3333333333333333 0.3333333333333333 0.3333333333333333 </TABLE>
    </DEFINITION>
    <DEFINITION>
      <FOR>time</FOR>
      <TABLE>0.13893034825870645 0.14340796019900498 0.11156716417910448 0.12798507462686567 0.11355721393034826 0.13445273631840796 0.1185323383084577 0.11156716417910448 </TABLE>
    </DEFINITION>
    <DEFINITION>
      <FOR>traffic</FOR>
      <GIVEN>fog</GIVEN>
      <GIVEN>pedestrians</GIVEN>
      <GIVEN>time</GIVEN>
      <TABLE>0.7084170573788793 0.033266354096896635 0.2583165885242242 0.664367816091954 0.0685057471264368 0.26712643678160924 0.3333333333333333 0.3333333333333333 0.3333333333333333 0.3333333333333333 0.3333333333333333 0.3333333333333333 0.3333333333333333 0.3333333333333333 0.3333333333333333 0.5826120407770725 0.13944989421042508 0.2779380650125024 0.3333333333333333 0.3333333333333333 0.3333333333333333 0.3333333333333333 0.3333333333333333 0.3333333333333333 0.3333333333333333 0.3333333333333333 0.3333333333333333 0.14356313318507538 0.42821843340746235 0.42821843340746235 0.19596324747702967 0.3261033288145805 0.4779334237083898 0.3265450431339273 0.2654504313392731 0.4080045255267996 0.2546943919344675 0.27284183994959044 0.47246376811594204 0.031446540880503145 0.031446540880503145 0.9371069182389937 0.14565004887585534 0.7086999022482894 0.14565004887585534 0.14326120774996465 0.3265450431339273 0.5301937491161081 0.41906675597231524 0.22616655503460595 0.35476668899307884 0.6461005905110976 0.11830584402362046 0.235593565465282 0.3333333333333333 0.3333333333333333 0.3333333333333333 0.623113410952997 0.06425183268650282 0.31263475636050025 0.3333333333333333 0.3333333333333333 0.3333333333333333 0.382203217267359 0.20627163510486665 0.41152514762777437 0.44873426672323574 0.1636260783481827 0.38763965492858155 0.3333333333333333 0.3333333333333333 0.3333333333333333 0.34282888229475766 0.1434223541048467 0.5137487636003957 0.5679374389051808 0.004887585532746823 0.42717497556207235 0.3333333333333333 0.3333333333333333 0.3333333333333333 0.3333333333333333 0.3333333333333333 0.3333333333333333 0.3333333333333333 0.3333333333333333 0.3333333333333333 0.4982817869415807 0.30034364261168384 0.20137457044673537 0.3333333333333333 0.3333333333333333 0.3333333333333333 0.3333333333333333 0.3333333333333333 0.3333333333333333 0.3333333333333333 0.3333333333333333 0.3333333333333333 0.2732958098811757 0.5434646654158849 0.18323952470293933 0.12088520055325036 0.4395573997233748 0.4395573997233748 0.002298850574712644 0.33333333333333337 0.6643678160919539 0.14379730174399474 0.33333333333333337 0.522869364922672 0.3333333333333333 0.3333333333333333 0.3333333333333333 0.031446540880503145 0.031446540880503145 0.9371069182389937 0.10120898100172714 0.3996545768566494 0.4991364421416235 0.37446443873179086 0.25107112253641817 0.37446443873179086 0.37446443873179086 0.12767780634104542 0.4978577549271636 0.3333333333333333 0.3333333333333333 0.3333333333333333 0.4978577549271636 0.12767780634104542 0.37446443873179086 0.3333333333333333 0.3333333333333333 0.3333333333333333 0.28641251221896386 0.14565004887585534 0.5679374389051808 0.4539742381401194 0.09205152371976125 0.4539742381401194 0.3333333333333333 0.3333333333333333 0.3333333333333333 0.5702533728200067 0.2859493254359987 0.14379730174399474 0.49715585893060293 0.16951080773606372 0.3333333333333333 0.3333333333333333 0.3333333333333333 0.3333333333333333 0.3333333333333333 0.3333333333333333 0.3333333333333333 0.3333333333333333 0.3333333333333333 0.3333333333333333 0.29435647584246855 0.29435647584246855 0.4112870483150629 0.3333333333333333 0.3333333333333333 0.3333333333333333 0.3333333333333333 0.3333333333333333 0.3333333333333333 0.3333333333333333 0.3333333333333333 0.3333333333333333 0.2521150592216582 0.2521150592216582 0.49576988155668356 0.046811184417216475 0.3182532202324851 0.6349355953502985 0.2671264367816092 0.20091954022988506 0.5319540229885057 0.37473048727899955 0.1884432945235015 0.4368262181974989 0.3333333333333333 0.3333333333333333 0.3333333333333333 0.03144654088050314 0.9371069182389935 0.03144654088050314 0.06049533089727976 0.5282176207876573 0.411287048315063 0.09318323952470293 0.2732958098811757 0.6335209505941213 0.5434646654158849 0.09318323952470293 0.36335209505941213 0.3333333333333333 0.3333333333333333 0.3333333333333333 0.16951080773606372 0.3333333333333333 0.49715585893060293 0.3333333333333333 0.3333333333333333 0.3333333333333333 0.18323952470293933 0.2732958098811757 0.5434646654158849 0.4112870483150629 0.17742590336987413 0.4112870483150629 0.3333333333333333 0.3333333333333333 0.3333333333333333 0.34284770399735714 0.2477039973571193 0.4094482986455236 0.26165333333333335 0.21557333333333334 0.5227733333333334 0.3333333333333333 0.3333333333333333 0.3333333333333333 0.3333333333333333 0.3333333333333333 0.3333333333333333 0.3333333333333333 0.3333333333333333 0.3333333333333333 0.2952758506772382 0.28576148001321444 0.41896266930954745 0.3333333333333333 0.3333333333333333 0.3333333333333333 0.3333333333333333 0.3333333333333333 0.3333333333333333 0.0165016501650165 0.0165016501650165 0.9669966996699669 0.14326120774996465 0.4080045255267996 0.44873426672323574 0.10787296503869763 0.4230050707232453 0.46912196423805713 0.24401590120950692 0.24401590120950692 0.5119681975809862 0.1717673864636735 0.32836207342965146 0.4998705401066749 0.031446540880503145 0.031446540880503145 0.9371069182389937 0.008460236886632826 0.2521150592216582 0.7394247038917089 0.12424656840399126 0.37952692093400187 0.4962265106620068 0.2649154958256974 0.3235593565465282 0.41152514762777437 0.5098288785178899 0.1025314665535285 0.38763965492858155 0.3333333333333333 0.3333333333333333 0.3333333333333333 0.21557333333333334 0.26165333333333335 0.5227733333333334 0.03144654088050314 0.9371069182389935 0.03144654088050314 0.29795075925106884 0.2554916703523515 0.4465575703965797 0.2868003469564774 0.2868003469564774 0.4263993060870453 0.3333333333333333 0.3333333333333333 0.3333333333333333 </TABLE>
    </DEFINITION>
  </NETWORK>
</BIF>
